digraph Tree {
node [shape=box] ;
0 [label="adult_male <= 0.5\nentropy = 0.957\nsamples = 757\nvalue = [470, 287]"] ;
1 [label="pclass <= 2.5\nentropy = 0.876\nsamples = 304\nvalue = [90, 214]"] ;
0 -> 1 [labeldistance=2.5, labelangle=45, headlabel="True"] ;
2 [label="fare <= 28.856\nentropy = 0.296\nsamples = 153\nvalue = [8, 145]"] ;
1 -> 2 ;
3 [label="fare <= 28.231\nentropy = 0.459\nsamples = 62\nvalue = [6, 56]"] ;
2 -> 3 ;
4 [label="parch <= 1.5\nentropy = 0.409\nsamples = 61\nvalue = [5, 56]"] ;
3 -> 4 ;
5 [label="sex_1 <= 0.5\nentropy = 0.457\nsamples = 52\nvalue = [5, 47]"] ;
4 -> 5 ;
6 [label="sibsp <= 0.5\nentropy = 0.489\nsamples = 47\nvalue = [5, 42]"] ;
5 -> 6 ;
7 [label="fare <= 13.25\nentropy = 0.345\nsamples = 31\nvalue = [2, 29]"] ;
6 -> 7 ;
8 [label="embarked_3 <= 0.5\nentropy = 0.503\nsamples = 18\nvalue = [2, 16]"] ;
7 -> 8 ;
9 [label="fare <= 11.575\nentropy = 0.523\nsamples = 17\nvalue = [2, 15]"] ;
8 -> 9 ;
10 [label="entropy = 0.592\nsamples = 7\nvalue = [1, 6]"] ;
9 -> 10 ;
11 [label="fare <= 12.825\nentropy = 0.469\nsamples = 10\nvalue = [1, 9]"] ;
9 -> 11 ;
12 [label="entropy = 0.0\nsamples = 1\nvalue = [0, 1]"] ;
11 -> 12 ;
13 [label="entropy = 0.503\nsamples = 9\nvalue = [1, 8]"] ;
11 -> 13 ;
14 [label="entropy = 0.0\nsamples = 1\nvalue = [0, 1]"] ;
8 -> 14 ;
15 [label="entropy = 0.0\nsamples = 13\nvalue = [0, 13]"] ;
7 -> 15 ;
16 [label="embarked_1 <= 0.5\nentropy = 0.696\nsamples = 16\nvalue = [3, 13]"] ;
6 -> 16 ;
17 [label="entropy = 0.0\nsamples = 2\nvalue = [0, 2]"] ;
16 -> 17 ;
18 [label="sibsp <= 1.5\nentropy = 0.75\nsamples = 14\nvalue = [3, 11]"] ;
16 -> 18 ;
19 [label="fare <= 22.0\nentropy = 0.811\nsamples = 12\nvalue = [3, 9]"] ;
18 -> 19 ;
20 [label="entropy = 0.0\nsamples = 1\nvalue = [1, 0]"] ;
19 -> 20 ;
21 [label="fare <= 24.5\nentropy = 0.684\nsamples = 11\nvalue = [2, 9]"] ;
19 -> 21 ;
22 [label="entropy = 0.0\nsamples = 1\nvalue = [0, 1]"] ;
21 -> 22 ;
23 [label="fare <= 26.125\nentropy = 0.722\nsamples = 10\nvalue = [2, 8]"] ;
21 -> 23 ;
24 [label="parch <= 0.5\nentropy = 0.764\nsamples = 9\nvalue = [2, 7]"] ;
23 -> 24 ;
25 [label="entropy = 0.592\nsamples = 7\nvalue = [1, 6]"] ;
24 -> 25 ;
26 [label="entropy = 1.0\nsamples = 2\nvalue = [1, 1]"] ;
24 -> 26 ;
27 [label="entropy = 0.0\nsamples = 1\nvalue = [0, 1]"] ;
23 -> 27 ;
28 [label="entropy = 0.0\nsamples = 2\nvalue = [0, 2]"] ;
18 -> 28 ;
29 [label="entropy = 0.0\nsamples = 5\nvalue = [0, 5]"] ;
5 -> 29 ;
30 [label="entropy = 0.0\nsamples = 9\nvalue = [0, 9]"] ;
4 -> 30 ;
31 [label="entropy = 0.0\nsamples = 1\nvalue = [1, 0]"] ;
3 -> 31 ;
32 [label="parch <= 1.5\nentropy = 0.152\nsamples = 91\nvalue = [2, 89]"] ;
2 -> 32 ;
33 [label="entropy = 0.0\nsamples = 74\nvalue = [0, 74]"] ;
32 -> 33 ;
34 [label="fare <= 135.775\nentropy = 0.523\nsamples = 17\nvalue = [2, 15]"] ;
32 -> 34 ;
35 [label="entropy = 0.0\nsamples = 9\nvalue = [0, 9]"] ;
34 -> 35 ;
36 [label="fare <= 158.208\nentropy = 0.811\nsamples = 8\nvalue = [2, 6]"] ;
34 -> 36 ;
37 [label="sex_2 <= 0.5\nentropy = 0.918\nsamples = 3\nvalue = [2, 1]"] ;
36 -> 37 ;
38 [label="entropy = 0.0\nsamples = 1\nvalue = [0, 1]"] ;
37 -> 38 ;
39 [label="entropy = 0.0\nsamples = 2\nvalue = [2, 0]"] ;
37 -> 39 ;
40 [label="entropy = 0.0\nsamples = 5\nvalue = [0, 5]"] ;
36 -> 40 ;
41 [label="fare <= 24.808\nentropy = 0.995\nsamples = 151\nvalue = [82, 69]"] ;
1 -> 41 ;
42 [label="embarked_3 <= 0.5\nentropy = 0.982\nsamples = 114\nvalue = [48, 66]"] ;
41 -> 42 ;
43 [label="fare <= 23.254\nentropy = 0.998\nsamples = 86\nvalue = [41, 45]"] ;
42 -> 43 ;
44 [label="parch <= 0.5\nentropy = 0.996\nsamples = 84\nvalue = [39, 45]"] ;
43 -> 44 ;
45 [label="fare <= 7.763\nentropy = 0.992\nsamples = 49\nvalue = [27, 22]"] ;
44 -> 45 ;
46 [label="fare <= 7.523\nentropy = 0.544\nsamples = 8\nvalue = [1, 7]"] ;
45 -> 46 ;
47 [label="entropy = 0.0\nsamples = 4\nvalue = [0, 4]"] ;
46 -> 47 ;
48 [label="fare <= 7.6\nentropy = 0.811\nsamples = 4\nvalue = [1, 3]"] ;
46 -> 48 ;
49 [label="entropy = 1.0\nsamples = 2\nvalue = [1, 1]"] ;
48 -> 49 ;
50 [label="entropy = 0.0\nsamples = 2\nvalue = [0, 2]"] ;
48 -> 50 ;
51 [label="fare <= 17.6\nentropy = 0.947\nsamples = 41\nvalue = [26, 15]"] ;
45 -> 51 ;
52 [label="fare <= 9.84\nentropy = 0.974\nsamples = 37\nvalue = [22, 15]"] ;
51 -> 52 ;
53 [label="fare <= 7.988\nentropy = 0.792\nsamples = 21\nvalue = [16, 5]"] ;
52 -> 53 ;
54 [label="fare <= 7.875\nentropy = 0.946\nsamples = 11\nvalue = [7, 4]"] ;
53 -> 54 ;
55 [label="sibsp <= 0.5\nentropy = 0.985\nsamples = 7\nvalue = [4, 3]"] ;
54 -> 55 ;
56 [label="fare <= 7.815\nentropy = 0.918\nsamples = 6\nvalue = [4, 2]"] ;
55 -> 56 ;
57 [label="entropy = 0.918\nsamples = 3\nvalue = [2, 1]"] ;
56 -> 57 ;
58 [label="entropy = 0.918\nsamples = 3\nvalue = [2, 1]"] ;
56 -> 58 ;
59 [label="entropy = 0.0\nsamples = 1\nvalue = [0, 1]"] ;
55 -> 59 ;
60 [label="sibsp <= 0.5\nentropy = 0.811\nsamples = 4\nvalue = [3, 1]"] ;
54 -> 60 ;
61 [label="fare <= 7.91\nentropy = 0.918\nsamples = 3\nvalue = [2, 1]"] ;
60 -> 61 ;
62 [label="entropy = 0.0\nsamples = 1\nvalue = [1, 0]"] ;
61 -> 62 ;
63 [label="entropy = 1.0\nsamples = 2\nvalue = [1, 1]"] ;
61 -> 63 ;
64 [label="entropy = 0.0\nsamples = 1\nvalue = [1, 0]"] ;
60 -> 64 ;
65 [label="fare <= 9.219\nentropy = 0.469\nsamples = 10\nvalue = [9, 1]"] ;
53 -> 65 ;
66 [label="entropy = 0.0\nsamples = 5\nvalue = [5, 0]"] ;
65 -> 66 ;
67 [label="fare <= 9.706\nentropy = 0.722\nsamples = 5\nvalue = [4, 1]"] ;
65 -> 67 ;
68 [label="entropy = 1.0\nsamples = 2\nvalue = [1, 1]"] ;
67 -> 68 ;
69 [label="entropy = 0.0\nsamples = 3\nvalue = [3, 0]"] ;
67 -> 69 ;
70 [label="fare <= 13.465\nentropy = 0.954\nsamples = 16\nvalue = [6, 10]"] ;
52 -> 70 ;
71 [label="fare <= 10.879\nentropy = 0.65\nsamples = 6\nvalue = [1, 5]"] ;
70 -> 71 ;
72 [label="fare <= 10.179\nentropy = 1.0\nsamples = 2\nvalue = [1, 1]"] ;
71 -> 72 ;
73 [label="entropy = 0.0\nsamples = 1\nvalue = [0, 1]"] ;
72 -> 73 ;
74 [label="entropy = 0.0\nsamples = 1\nvalue = [1, 0]"] ;
72 -> 74 ;
75 [label="entropy = 0.0\nsamples = 4\nvalue = [0, 4]"] ;
71 -> 75 ;
76 [label="fare <= 15.175\nentropy = 1.0\nsamples = 10\nvalue = [5, 5]"] ;
70 -> 76 ;
77 [label="fare <= 14.456\nentropy = 0.722\nsamples = 5\nvalue = [4, 1]"] ;
76 -> 77 ;
78 [label="entropy = 1.0\nsamples = 2\nvalue = [1, 1]"] ;
77 -> 78 ;
79 [label="entropy = 0.0\nsamples = 3\nvalue = [3, 0]"] ;
77 -> 79 ;
80 [label="fare <= 15.975\nentropy = 0.722\nsamples = 5\nvalue = [1, 4]"] ;
76 -> 80 ;
81 [label="entropy = 0.0\nsamples = 2\nvalue = [0, 2]"] ;
80 -> 81 ;
82 [label="fare <= 16.75\nentropy = 0.918\nsamples = 3\nvalue = [1, 2]"] ;
80 -> 82 ;
83 [label="entropy = 1.0\nsamples = 2\nvalue = [1, 1]"] ;
82 -> 83 ;
84 [label="entropy = 0.0\nsamples = 1\nvalue = [0, 1]"] ;
82 -> 84 ;
85 [label="entropy = 0.0\nsamples = 4\nvalue = [4, 0]"] ;
51 -> 85 ;
86 [label="fare <= 15.494\nentropy = 0.928\nsamples = 35\nvalue = [12, 23]"] ;
44 -> 86 ;
87 [label="fare <= 13.908\nentropy = 0.998\nsamples = 17\nvalue = [8, 9]"] ;
86 -> 87 ;
88 [label="fare <= 10.798\nentropy = 0.811\nsamples = 12\nvalue = [3, 9]"] ;
87 -> 88 ;
89 [label="fare <= 9.906\nentropy = 1.0\nsamples = 6\nvalue = [3, 3]"] ;
88 -> 89 ;
90 [label="fare <= 7.577\nentropy = 0.811\nsamples = 4\nvalue = [1, 3]"] ;
89 -> 90 ;
91 [label="entropy = 0.0\nsamples = 1\nvalue = [1, 0]"] ;
90 -> 91 ;
92 [label="entropy = 0.0\nsamples = 3\nvalue = [0, 3]"] ;
90 -> 92 ;
93 [label="entropy = 0.0\nsamples = 2\nvalue = [2, 0]"] ;
89 -> 93 ;
94 [label="entropy = 0.0\nsamples = 6\nvalue = [0, 6]"] ;
88 -> 94 ;
95 [label="entropy = 0.0\nsamples = 5\nvalue = [5, 0]"] ;
87 -> 95 ;
96 [label="sibsp <= 2.5\nentropy = 0.764\nsamples = 18\nvalue = [4, 14]"] ;
86 -> 96 ;
97 [label="parch <= 3.5\nentropy = 0.544\nsamples = 16\nvalue = [2, 14]"] ;
96 -> 97 ;
98 [label="sibsp <= 0.5\nentropy = 0.353\nsamples = 15\nvalue = [1, 14]"] ;
97 -> 98 ;
99 [label="fare <= 19.735\nentropy = 0.592\nsamples = 7\nvalue = [1, 6]"] ;
98 -> 99 ;
100 [label="entropy = 0.0\nsamples = 3\nvalue = [0, 3]"] ;
99 -> 100 ;
101 [label="fare <= 20.369\nentropy = 0.811\nsamples = 4\nvalue = [1, 3]"] ;
99 -> 101 ;
102 [label="entropy = 0.0\nsamples = 1\nvalue = [1, 0]"] ;
101 -> 102 ;
103 [label="entropy = 0.0\nsamples = 3\nvalue = [0, 3]"] ;
101 -> 103 ;
104 [label="entropy = 0.0\nsamples = 8\nvalue = [0, 8]"] ;
98 -> 104 ;
105 [label="entropy = 0.0\nsamples = 1\nvalue = [1, 0]"] ;
97 -> 105 ;
106 [label="entropy = 0.0\nsamples = 2\nvalue = [2, 0]"] ;
96 -> 106 ;
107 [label="entropy = 0.0\nsamples = 2\nvalue = [2, 0]"] ;
43 -> 107 ;
108 [label="parch <= 0.5\nentropy = 0.811\nsamples = 28\nvalue = [7, 21]"] ;
42 -> 108 ;
109 [label="fare <= 7.681\nentropy = 0.706\nsamples = 26\nvalue = [5, 21]"] ;
108 -> 109 ;
110 [label="entropy = 0.0\nsamples = 2\nvalue = [2, 0]"] ;
109 -> 110 ;
111 [label="fare <= 11.819\nentropy = 0.544\nsamples = 24\nvalue = [3, 21]"] ;
109 -> 111 ;
112 [label="fare <= 8.083\nentropy = 0.61\nsamples = 20\nvalue = [3, 17]"] ;
111 -> 112 ;
113 [label="fare <= 7.769\nentropy = 0.485\nsamples = 19\nvalue = [2, 17]"] ;
112 -> 113 ;
114 [label="fare <= 7.744\nentropy = 0.619\nsamples = 13\nvalue = [2, 11]"] ;
113 -> 114 ;
115 [label="entropy = 0.0\nsamples = 2\nvalue = [0, 2]"] ;
114 -> 115 ;
116 [label="entropy = 0.684\nsamples = 11\nvalue = [2, 9]"] ;
114 -> 116 ;
117 [label="entropy = 0.0\nsamples = 6\nvalue = [0, 6]"] ;
113 -> 117 ;
118 [label="entropy = 0.0\nsamples = 1\nvalue = [1, 0]"] ;
112 -> 118 ;
119 [label="entropy = 0.0\nsamples = 4\nvalue = [0, 4]"] ;
111 -> 119 ;
120 [label="entropy = 0.0\nsamples = 2\nvalue = [2, 0]"] ;
108 -> 120 ;
121 [label="fare <= 31.331\nentropy = 0.406\nsamples = 37\nvalue = [34, 3]"] ;
41 -> 121 ;
122 [label="entropy = 0.0\nsamples = 17\nvalue = [17, 0]"] ;
121 -> 122 ;
123 [label="fare <= 32.881\nentropy = 0.61\nsamples = 20\nvalue = [17, 3]"] ;
121 -> 123 ;
124 [label="sex_2 <= 0.5\nentropy = 0.811\nsamples = 4\nvalue = [1, 3]"] ;
123 -> 124 ;
125 [label="entropy = 1.0\nsamples = 2\nvalue = [1, 1]"] ;
124 -> 125 ;
126 [label="entropy = 0.0\nsamples = 2\nvalue = [0, 2]"] ;
124 -> 126 ;
127 [label="entropy = 0.0\nsamples = 16\nvalue = [16, 0]"] ;
123 -> 127 ;
128 [label="fare <= 26.269\nentropy = 0.637\nsamples = 453\nvalue = [380, 73]"] ;
0 -> 128 [labeldistance=2.5, labelangle=-45, headlabel="False"] ;
129 [label="fare <= 6.962\nentropy = 0.453\nsamples = 337\nvalue = [305, 32]"] ;
128 -> 129 ;
130 [label="entropy = 0.0\nsamples = 20\nvalue = [20, 0]"] ;
129 -> 130 ;
131 [label="embarked_2 <= 0.5\nentropy = 0.472\nsamples = 317\nvalue = [285, 32]"] ;
129 -> 131 ;
132 [label="fare <= 13.25\nentropy = 0.432\nsamples = 282\nvalue = [257, 25]"] ;
131 -> 132 ;
133 [label="fare <= 7.91\nentropy = 0.473\nsamples = 227\nvalue = [204, 23]"] ;
132 -> 133 ;
134 [label="fare <= 7.875\nentropy = 0.346\nsamples = 108\nvalue = [101, 7]"] ;
133 -> 134 ;
135 [label="fare <= 7.01\nentropy = 0.428\nsamples = 80\nvalue = [73, 7]"] ;
134 -> 135 ;
136 [label="entropy = 1.0\nsamples = 2\nvalue = [1, 1]"] ;
135 -> 136 ;
137 [label="fare <= 7.746\nentropy = 0.391\nsamples = 78\nvalue = [72, 6]"] ;
135 -> 137 ;
138 [label="fare <= 7.196\nentropy = 0.179\nsamples = 37\nvalue = [36, 1]"] ;
137 -> 138 ;
139 [label="fare <= 7.133\nentropy = 0.353\nsamples = 15\nvalue = [14, 1]"] ;
138 -> 139 ;
140 [label="entropy = 0.0\nsamples = 14\nvalue = [14, 0]"] ;
139 -> 140 ;
141 [label="entropy = 0.0\nsamples = 1\nvalue = [0, 1]"] ;
139 -> 141 ;
142 [label="entropy = 0.0\nsamples = 22\nvalue = [22, 0]"] ;
138 -> 142 ;
143 [label="sibsp <= 0.5\nentropy = 0.535\nsamples = 41\nvalue = [36, 5]"] ;
137 -> 143 ;
144 [label="fare <= 7.785\nentropy = 0.562\nsamples = 38\nvalue = [33, 5]"] ;
143 -> 144 ;
145 [label="embarked_3 <= 0.5\nentropy = 0.491\nsamples = 28\nvalue = [25, 3]"] ;
144 -> 145 ;
146 [label="fare <= 7.763\nentropy = 0.414\nsamples = 12\nvalue = [11, 1]"] ;
145 -> 146 ;
147 [label="entropy = 0.0\nsamples = 1\nvalue = [1, 0]"] ;
146 -> 147 ;
148 [label="entropy = 0.439\nsamples = 11\nvalue = [10, 1]"] ;
146 -> 148 ;
149 [label="entropy = 0.544\nsamples = 16\nvalue = [14, 2]"] ;
145 -> 149 ;
150 [label="fare <= 7.798\nentropy = 0.722\nsamples = 10\nvalue = [8, 2]"] ;
144 -> 150 ;
151 [label="entropy = 0.811\nsamples = 4\nvalue = [3, 1]"] ;
150 -> 151 ;
152 [label="fare <= 7.827\nentropy = 0.65\nsamples = 6\nvalue = [5, 1]"] ;
150 -> 152 ;
153 [label="entropy = 0.0\nsamples = 1\nvalue = [1, 0]"] ;
152 -> 153 ;
154 [label="entropy = 0.722\nsamples = 5\nvalue = [4, 1]"] ;
152 -> 154 ;
155 [label="entropy = 0.0\nsamples = 3\nvalue = [3, 0]"] ;
143 -> 155 ;
156 [label="entropy = 0.0\nsamples = 28\nvalue = [28, 0]"] ;
134 -> 156 ;
157 [label="fare <= 7.988\nentropy = 0.57\nsamples = 119\nvalue = [103, 16]"] ;
133 -> 157 ;
158 [label="sibsp <= 1.5\nentropy = 0.991\nsamples = 9\nvalue = [5, 4]"] ;
157 -> 158 ;
159 [label="sibsp <= 0.5\nentropy = 1.0\nsamples = 8\nvalue = [4, 4]"] ;
158 -> 159 ;
160 [label="entropy = 0.985\nsamples = 7\nvalue = [4, 3]"] ;
159 -> 160 ;
161 [label="entropy = 0.0\nsamples = 1\nvalue = [0, 1]"] ;
159 -> 161 ;
162 [label="entropy = 0.0\nsamples = 1\nvalue = [1, 0]"] ;
158 -> 162 ;
163 [label="fare <= 8.135\nentropy = 0.497\nsamples = 110\nvalue = [98, 12]"] ;
157 -> 163 ;
164 [label="fare <= 8.081\nentropy = 0.65\nsamples = 36\nvalue = [30, 6]"] ;
163 -> 164 ;
165 [label="entropy = 0.592\nsamples = 35\nvalue = [30, 5]"] ;
164 -> 165 ;
166 [label="entropy = 0.0\nsamples = 1\nvalue = [0, 1]"] ;
164 -> 166 ;
167 [label="fare <= 8.658\nentropy = 0.406\nsamples = 74\nvalue = [68, 6]"] ;
163 -> 167 ;
168 [label="entropy = 0.0\nsamples = 7\nvalue = [7, 0]"] ;
167 -> 168 ;
169 [label="fare <= 12.762\nentropy = 0.435\nsamples = 67\nvalue = [61, 6]"] ;
167 -> 169 ;
170 [label="fare <= 9.673\nentropy = 0.353\nsamples = 45\nvalue = [42, 3]"] ;
169 -> 170 ;
171 [label="fare <= 9.492\nentropy = 0.529\nsamples = 25\nvalue = [22, 3]"] ;
170 -> 171 ;
172 [label="fare <= 8.831\nentropy = 0.337\nsamples = 16\nvalue = [15, 1]"] ;
171 -> 172 ;
173 [label="sibsp <= 1.0\nentropy = 0.503\nsamples = 9\nvalue = [8, 1]"] ;
172 -> 173 ;
174 [label="entropy = 0.544\nsamples = 8\nvalue = [7, 1]"] ;
173 -> 174 ;
175 [label="entropy = 0.0\nsamples = 1\nvalue = [1, 0]"] ;
173 -> 175 ;
176 [label="entropy = 0.0\nsamples = 7\nvalue = [7, 0]"] ;
172 -> 176 ;
177 [label="entropy = 0.764\nsamples = 9\nvalue = [7, 2]"] ;
171 -> 177 ;
178 [label="entropy = 0.0\nsamples = 20\nvalue = [20, 0]"] ;
170 -> 178 ;
179 [label="entropy = 0.575\nsamples = 22\nvalue = [19, 3]"] ;
169 -> 179 ;
180 [label="fare <= 22.887\nentropy = 0.225\nsamples = 55\nvalue = [53, 2]"] ;
132 -> 180 ;
181 [label="entropy = 0.0\nsamples = 30\nvalue = [30, 0]"] ;
180 -> 181 ;
182 [label="fare <= 23.7\nentropy = 0.402\nsamples = 25\nvalue = [23, 2]"] ;
180 -> 182 ;
183 [label="entropy = 0.0\nsamples = 1\nvalue = [0, 1]"] ;
182 -> 183 ;
184 [label="sibsp <= 0.5\nentropy = 0.25\nsamples = 24\nvalue = [23, 1]"] ;
182 -> 184 ;
185 [label="entropy = 0.0\nsamples = 12\nvalue = [12, 0]"] ;
184 -> 185 ;
186 [label="pclass <= 2.5\nentropy = 0.414\nsamples = 12\nvalue = [11, 1]"] ;
184 -> 186 ;
187 [label="parch <= 0.5\nentropy = 0.544\nsamples = 8\nvalue = [7, 1]"] ;
186 -> 187 ;
188 [label="entropy = 0.65\nsamples = 6\nvalue = [5, 1]"] ;
187 -> 188 ;
189 [label="entropy = 0.0\nsamples = 2\nvalue = [2, 0]"] ;
187 -> 189 ;
190 [label="entropy = 0.0\nsamples = 4\nvalue = [4, 0]"] ;
186 -> 190 ;
191 [label="parch <= 0.5\nentropy = 0.722\nsamples = 35\nvalue = [28, 7]"] ;
131 -> 191 ;
192 [label="fare <= 14.158\nentropy = 0.625\nsamples = 32\nvalue = [27, 5]"] ;
191 -> 192 ;
193 [label="fare <= 13.369\nentropy = 0.722\nsamples = 25\nvalue = [20, 5]"] ;
192 -> 193 ;
194 [label="fare <= 8.304\nentropy = 0.65\nsamples = 24\nvalue = [20, 4]"] ;
193 -> 194 ;
195 [label="fare <= 7.227\nentropy = 0.684\nsamples = 22\nvalue = [18, 4]"] ;
194 -> 195 ;
196 [label="entropy = 0.544\nsamples = 8\nvalue = [7, 1]"] ;
195 -> 196 ;
197 [label="fare <= 7.562\nentropy = 0.75\nsamples = 14\nvalue = [11, 3]"] ;
195 -> 197 ;
198 [label="entropy = 0.722\nsamples = 10\nvalue = [8, 2]"] ;
197 -> 198 ;
199 [label="entropy = 0.811\nsamples = 4\nvalue = [3, 1]"] ;
197 -> 199 ;
200 [label="entropy = 0.0\nsamples = 2\nvalue = [2, 0]"] ;
194 -> 200 ;
201 [label="entropy = 0.0\nsamples = 1\nvalue = [0, 1]"] ;
193 -> 201 ;
202 [label="entropy = 0.0\nsamples = 7\nvalue = [7, 0]"] ;
192 -> 202 ;
203 [label="fare <= 11.237\nentropy = 0.918\nsamples = 3\nvalue = [1, 2]"] ;
191 -> 203 ;
204 [label="entropy = 0.0\nsamples = 1\nvalue = [1, 0]"] ;
203 -> 204 ;
205 [label="entropy = 0.0\nsamples = 2\nvalue = [0, 2]"] ;
203 -> 205 ;
206 [label="fare <= 26.469\nentropy = 0.937\nsamples = 116\nvalue = [75, 41]"] ;
128 -> 206 ;
207 [label="entropy = 0.0\nsamples = 4\nvalue = [0, 4]"] ;
206 -> 207 ;
208 [label="parch <= 0.5\nentropy = 0.915\nsamples = 112\nvalue = [75, 37]"] ;
206 -> 208 ;
209 [label="pclass <= 2.5\nentropy = 0.964\nsamples = 85\nvalue = [52, 33]"] ;
208 -> 209 ;
210 [label="pclass <= 1.5\nentropy = 0.938\nsamples = 79\nvalue = [51, 28]"] ;
209 -> 210 ;
211 [label="fare <= 30.598\nentropy = 0.957\nsamples = 74\nvalue = [46, 28]"] ;
210 -> 211 ;
212 [label="fare <= 29.85\nentropy = 0.999\nsamples = 25\nvalue = [12, 13]"] ;
211 -> 212 ;
213 [label="fare <= 27.135\nentropy = 0.971\nsamples = 20\nvalue = [12, 8]"] ;
212 -> 213 ;
214 [label="embarked_1 <= 0.5\nentropy = 1.0\nsamples = 14\nvalue = [7, 7]"] ;
213 -> 214 ;
215 [label="entropy = 0.0\nsamples = 1\nvalue = [0, 1]"] ;
214 -> 215 ;
216 [label="entropy = 0.996\nsamples = 13\nvalue = [7, 6]"] ;
214 -> 216 ;
217 [label="fare <= 28.725\nentropy = 0.65\nsamples = 6\nvalue = [5, 1]"] ;
213 -> 217 ;
218 [label="entropy = 0.0\nsamples = 4\nvalue = [4, 0]"] ;
217 -> 218 ;
219 [label="entropy = 1.0\nsamples = 2\nvalue = [1, 1]"] ;
217 -> 219 ;
220 [label="entropy = 0.0\nsamples = 5\nvalue = [0, 5]"] ;
212 -> 220 ;
221 [label="fare <= 52.277\nentropy = 0.889\nsamples = 49\nvalue = [34, 15]"] ;
211 -> 221 ;
222 [label="fare <= 37.0\nentropy = 0.722\nsamples = 25\nvalue = [20, 5]"] ;
221 -> 222 ;
223 [label="fare <= 35.25\nentropy = 0.89\nsamples = 13\nvalue = [9, 4]"] ;
222 -> 223 ;
224 [label="fare <= 31.66\nentropy = 0.503\nsamples = 9\nvalue = [8, 1]"] ;
223 -> 224 ;
225 [label="fare <= 30.848\nentropy = 0.811\nsamples = 4\nvalue = [3, 1]"] ;
224 -> 225 ;
226 [label="entropy = 0.0\nsamples = 2\nvalue = [2, 0]"] ;
225 -> 226 ;
227 [label="embarked_2 <= 0.5\nentropy = 1.0\nsamples = 2\nvalue = [1, 1]"] ;
225 -> 227 ;
228 [label="entropy = 0.0\nsamples = 1\nvalue = [1, 0]"] ;
227 -> 228 ;
229 [label="entropy = 0.0\nsamples = 1\nvalue = [0, 1]"] ;
227 -> 229 ;
230 [label="entropy = 0.0\nsamples = 5\nvalue = [5, 0]"] ;
224 -> 230 ;
231 [label="embarked_1 <= 0.5\nentropy = 0.811\nsamples = 4\nvalue = [1, 3]"] ;
223 -> 231 ;
232 [label="entropy = 0.0\nsamples = 1\nvalue = [0, 1]"] ;
231 -> 232 ;
233 [label="entropy = 0.918\nsamples = 3\nvalue = [1, 2]"] ;
231 -> 233 ;
234 [label="sibsp <= 0.5\nentropy = 0.414\nsamples = 12\nvalue = [11, 1]"] ;
222 -> 234 ;
235 [label="entropy = 0.0\nsamples = 9\nvalue = [9, 0]"] ;
234 -> 235 ;
236 [label="entropy = 0.918\nsamples = 3\nvalue = [2, 1]"] ;
234 -> 236 ;
237 [label="sibsp <= 1.5\nentropy = 0.98\nsamples = 24\nvalue = [14, 10]"] ;
221 -> 237 ;
238 [label="fare <= 77.79\nentropy = 0.966\nsamples = 23\nvalue = [14, 9]"] ;
237 -> 238 ;
239 [label="embarked_1 <= 0.5\nentropy = 0.994\nsamples = 11\nvalue = [5, 6]"] ;
238 -> 239 ;
240 [label="entropy = 0.0\nsamples = 4\nvalue = [0, 4]"] ;
239 -> 240 ;
241 [label="fare <= 52.827\nentropy = 0.863\nsamples = 7\nvalue = [5, 2]"] ;
239 -> 241 ;
242 [label="entropy = 0.0\nsamples = 1\nvalue = [0, 1]"] ;
241 -> 242 ;
243 [label="fare <= 56.45\nentropy = 0.65\nsamples = 6\nvalue = [5, 1]"] ;
241 -> 243 ;
244 [label="entropy = 0.0\nsamples = 3\nvalue = [3, 0]"] ;
243 -> 244 ;
245 [label="fare <= 59.087\nentropy = 0.918\nsamples = 3\nvalue = [2, 1]"] ;
243 -> 245 ;
246 [label="entropy = 0.0\nsamples = 1\nvalue = [0, 1]"] ;
245 -> 246 ;
247 [label="entropy = 0.0\nsamples = 2\nvalue = [2, 0]"] ;
245 -> 247 ;
248 [label="fare <= 86.737\nentropy = 0.811\nsamples = 12\nvalue = [9, 3]"] ;
238 -> 248 ;
249 [label="entropy = 0.0\nsamples = 5\nvalue = [5, 0]"] ;
248 -> 249 ;
250 [label="fare <= 98.752\nentropy = 0.985\nsamples = 7\nvalue = [4, 3]"] ;
248 -> 250 ;
251 [label="entropy = 0.0\nsamples = 2\nvalue = [0, 2]"] ;
250 -> 251 ;
252 [label="fare <= 369.927\nentropy = 0.722\nsamples = 5\nvalue = [4, 1]"] ;
250 -> 252 ;
253 [label="entropy = 0.0\nsamples = 4\nvalue = [4, 0]"] ;
252 -> 253 ;
254 [label="entropy = 0.0\nsamples = 1\nvalue = [0, 1]"] ;
252 -> 254 ;
255 [label="entropy = 0.0\nsamples = 1\nvalue = [0, 1]"] ;
237 -> 255 ;
256 [label="entropy = 0.0\nsamples = 5\nvalue = [5, 0]"] ;
210 -> 256 ;
257 [label="entropy = 0.65\nsamples = 6\nvalue = [1, 5]"] ;
209 -> 257 ;
258 [label="fare <= 62.669\nentropy = 0.605\nsamples = 27\nvalue = [23, 4]"] ;
208 -> 258 ;
259 [label="entropy = 0.0\nsamples = 11\nvalue = [11, 0]"] ;
258 -> 259 ;
260 [label="fare <= 136.731\nentropy = 0.811\nsamples = 16\nvalue = [12, 4]"] ;
258 -> 260 ;
261 [label="embarked_1 <= 0.5\nentropy = 0.946\nsamples = 11\nvalue = [7, 4]"] ;
260 -> 261 ;
262 [label="fare <= 95.042\nentropy = 0.971\nsamples = 5\nvalue = [2, 3]"] ;
261 -> 262 ;
263 [label="entropy = 0.0\nsamples = 2\nvalue = [0, 2]"] ;
262 -> 263 ;
264 [label="parch <= 1.5\nentropy = 0.918\nsamples = 3\nvalue = [2, 1]"] ;
262 -> 264 ;
265 [label="entropy = 0.0\nsamples = 1\nvalue = [1, 0]"] ;
264 -> 265 ;
266 [label="fare <= 112.079\nentropy = 1.0\nsamples = 2\nvalue = [1, 1]"] ;
264 -> 266 ;
267 [label="entropy = 0.0\nsamples = 1\nvalue = [0, 1]"] ;
266 -> 267 ;
268 [label="entropy = 0.0\nsamples = 1\nvalue = [1, 0]"] ;
266 -> 268 ;
269 [label="fare <= 99.825\nentropy = 0.65\nsamples = 6\nvalue = [5, 1]"] ;
261 -> 269 ;
270 [label="entropy = 0.0\nsamples = 5\nvalue = [5, 0]"] ;
269 -> 270 ;
271 [label="entropy = 0.0\nsamples = 1\nvalue = [0, 1]"] ;
269 -> 271 ;
272 [label="entropy = 0.0\nsamples = 5\nvalue = [5, 0]"] ;
260 -> 272 ;
}